-0.4423927058635566,0.8388684430175342,0.8525180170371274,-0.11034081864372491,-0.552777904620543,-0.41078606502422343,0.911522821991618,0.049280825797960004,-0.9914961312629071,-0.15747343314017437,-0.9325349032470298,0.8120497815677834,-0.365383405104714,-0.2781144491929324,-0.9753742493063147,0.3152233869130807,-0.2979781380238995,-0.14186070124361283,-0.06724020319656088,-0.24835564349321215,0.5786793365054144,-0.28306103011198624,0.02771586912044044,-0.051171086331213145,0.633640366842559,-0.18558690781553144,0.6181905588387908,0.53358018830798,-0.6485635382178929,-0.5182941434188333,-0.950148131953441,0.20721851927731416
-0.3476145078861881,0.47899482063551635,0.6665331505022609,0.18164953825314778,-0.9953799360364468,-0.28547934050782353,0.40102478490595206,0.9358879187157252,0.19162245533106925,0.3555246672126311,-0.06420196272747991,-0.6410857365383973,0.1601937087635974,-0.12607203648283716,0.2827499120340964,0.36340230587084443,0.5499152044332865,-0.026061390192897438,-0.7877414010542645,0.6351028576246862,-0.29125217313964824,-0.13879275477040642,-0.8373173090339769,0.7990868231966979,0.537439369369672,0.19082540965593142,0.5105863136484823,0.3412873790297657,0.12151452733370438,0.0616594292456516,-0.46602280353606607,0.8109585626509763
0.7218177821177281,-0.0949510070276327,-0.37318700136697336,0.5985111669839569,0.7608775670679255,-0.32721193128047266,-0.878104535125902,0.5743133527266471,0.1943120690392739,-0.6402525347071197,0.6234946706729365,-0.800678689281604,0.20153645716266588,0.4082594554991048,-0.4327303112974028,-0.3258251442246103,-0.7235575558993059,-0.9036937617251655,0.5978072829472816,-0.15266631004878572,-0.21854023721384652,-0.7122276041736313,0.14666893849507456,0.13271915083304764,-0.6865925572541001,-0.889518442466718,0.44602621088084216,-0.403129061428384,0.5433648409852676,-0.35367435601752906,-0.5994288233396203,0.8958362622672378
-0.603560897908838,0.6648400053823176,0.459727623178396,-0.45138708848728615,0.8232170452467904,0.745019661777611,0.6033201213610992,-0.6997209684669423,0.918429759433558,0.5102070411249557,-0.6269639148868489,-0.48704209749461325,-0.6698949140692758,0.8255278165912563,-0.4569680413918955,-0.2756730372157141,-0.2732541594407685,-0.783816059161073,0.8044526377499439,0.5372488475098347,-0.2220173422326066,0.7860216498530974,-0.39023683864321956,0.5833189316257852,0.4500253283804587,0.1978328197101331,-0.06767116452489041,0.3241073928108822,-0.8309774142013264,-0.6254691512952684,-0.19732449088251092,-0.6741321528673028
-0.13729983831435977,0.8828508907780894,-0.7840463049014317,-0.22074151546571041,-0.89176527537338,-0.49651271992593915,0.27812609242753594,0.7094490327718779,0.49893371264344966,-0.48270561602521367,0.2796198597085475,0.05831514140297789,0.06727910542788829,0.4919806111019107,0.8921803663639085,-0.3807500517952265,-0.06702084475130743,0.7151507165919582,-0.8824658872025279,0.6664509968074377,0.727358858093283,-0.4303430296480495,0.46278066899771897,0.04436821367072996,0.34737259794003017,0.3522961706356005,0.6181184780205722,-0.5306726188252491,-0.8430242018929925,-0.6955317315946556,-0.5366603214513312,0.8441710475490929
-0.11945429987976941,0.9534909843636392,0.7348183179921246,-0.5019121049528925,0.12249426446564082,0.25584170052763566,-0.7790220046713507,-0.5623718079322351,0.20960698285078938,0.48867675747015116,0.5657349146952704,-0.0687669865012348,-0.21640682345972473,0.3535575073337527,0.5569927982735838,-0.9515689347724539,-0.7002175758139915,0.33638750168837817,-0.5898484480904638,-0.8638132366685038,-0.5310824300577772,-0.8019145725326129,-0.16801385577092165,-0.36128971158426904,0.5703312929661681,0.6720876727909608,-0.10806519924983249,0.15336853521811267,0.7272435909146122,0.1484594414845184,0.6805768690796221,-0.8358351506810706
-0.6990075167297929,0.5393289222330022,-0.8896306796011257,-0.4944177340507847,0.34946807519983736,-0.5646380593560609,-0.8673646421699681,0.28341437905633127,0.016157735550248686,0.36098356928808784,-0.11292768436840972,0.7155352333888834,0.5567361991668605,0.37992608646290105,-0.5978197912336463,0.15438784784686765,0.6463273263119373,-0.7934138140692,0.7294910822496687,0.646393953632024,0.050019059305224545,0.7196821390311896,-0.23899520873794056,0.2254026662773312,0.7411641436187357,-0.8250742559053068,0.7054982432743178,-0.576471069103865,0.1164542953407528,0.1869822288339258,-0.9443147682722246,-0.7701462458387593
-0.9162924831774466,0.34017498359165077,0.32138150385968656,-0.3057589672516301,0.4877614193646922,-0.4872506901818421,-0.9887590899974439,0.7890043441075294,-0.5730091186225328,-0.9618021721161558,-0.4640156893839824,0.4098331045929684,0.14604539836495434,-0.433908156836055,0.6162328526868275,0.13622515395322643,0.9521707194088864,0.7309120860281526,-0.6476297318873945,0.6968848047080578,0.7722998694291485,-0.7529996306785458,-0.39875569807277844,-0.3310614583445648,-0.06790732433936641,0.018734045327911897,-0.4018992315820584,0.505519892636324,-0.9670764500907825,-0.20977587243440166,-0.6144947631682531,0.5115562053284923
0.8145861476727552,0.9548201233223339,0.20705181403844475,0.9010903433084796,0.6870712255528859,-0.09566967436850438,-0.4454426170525334,0.179646893995419,-0.09817955099562692,0.8623597339961766,-0.611586065453797,0.07195835699785258,-0.30241562733839067,-0.611612628847626,-0.053311358806043874,-0.6859118582999277,0.5324228912902196,-0.587266945634624,0.9667620073784204,0.36173493865880113,0.9790582605397415,-0.7719327548758304,0.1139992847950222,-0.49276950396133223,0.5578754441024003,-0.7776551481524634,0.07275576167752162,0.7188462271311578,0.6117324568931417,0.9629351959325376,0.6857700546362928,-0.679642626016487
0.7233301429698529,0.7259481628811166,0.5879915037700754,0.7846361767086947,-0.8092844235006869,0.38025996542372953,0.4131139372239463,0.8030961346231626,0.8981562080735737,0.5842694153358803,0.3626958346165161,-0.553057806782929,-0.05077873097510399,0.3397391220149377,-0.8114197533938643,-0.3063845082602852,-0.3984693485066262,-0.616252093990056,0.5043264584616411,0.022982245788698785,0.8826279736382123,-0.9557218773167444,-0.18874688895925407,-0.567578941931155,-0.11746035062101123,0.8862020155175303,0.6170673196220815,0.9116246727750139,-0.13019434329655155,0.3981736317662872,0.4324892939761553,-0.37743745092654435
0.20102592562368504,-0.41376544967788287,-0.8146337063454159,0.201817409948436,-0.20919128420485666,0.9727248061070606,-0.4484656617139453,0.06906439337305348,0.40344874171922784,-0.16580973522865272,-0.7413407272754864,-0.1681335444219425,-0.06429321352817308,0.6431981706184071,-0.8313554913825374,-0.6438061447971699,0.9816144852813369,0.28247698431290935,0.809084734725134,0.907663722713044,-0.5991905007168585,0.9806615267906582,0.7639559275508361,0.8147689492201982,-0.5846994175048008,-0.08693582749070261,0.653088377833406,0.8468064188348783,0.6609894991348328,0.6052025027236905,-0.599867398080955,0.35415020682879295
0.8177224894371675,0.4039702289202127,0.5662163836132295,0.08495892190532484,0.03324251405089362,0.38414602241893303,-0.8901350394436884,0.08411097357587116,0.4949039506905819,0.45589476004487794,-2.8596087262222625E-4,0.1465944707546747,0.19375239574311687,0.8253280633314157,-0.017290364214177956,-0.6055963417341337,0.2289157165612994,-0.7065924284412004,0.7273849039167766,0.6875627024965874,0.47681831505008465,-0.1159178323343808,-0.22841755652694107,0.8871487174107417,-0.1596973252840208,-0.8401770822536301,0.435118943152923,-0.1801393659919841,-0.8688698971469582,-0.9060701468443291,-0.6607827608217804,-0.7647749420894288
-0.15999020147368914,0.6078582875727279,0.00576127747941535,0.8187248239529836,0.2353127384328093,0.8953826608463336,-0.2350969924338806,0.613917547941425,0.6641364361244171,0.16065344970293438,-0.3965945099576078,0.23268189727694644,0.4671084472192344,-0.3495778251305224,-0.5681881820965347,-0.7655127583196872,-0.8929708324382992,-0.2573027188321153,0.6567301701256549,-0.3584552868952897,0.10318972267658633,0.32144411429613995,-0.08476974387836345,-0.5194741606872781,0.6778852285194679,-0.49736951342063374,0.08660235963580054,-0.772137518054067,-0.3268483690510118,0.32614041905046665,-0.00799382348668587,-0.9155287489801442
0.24859668755133724,0.6372495867896393,0.455469385452937,0.11707148941316126,-0.04171832941583675,-0.2260653174179068,-0.06246345279109011,0.4770968763550323,0.4425004251955458,0.1313666605161814,0.21231814529633297,-0.8554741598975559,0.9407264211980777,0.31949883135291723,0.008523209581498437,-0.05721313975857911,0.44317223680077666,0.1938771295234787,-0.6164402784877325,-0.06777949850486165,0.3334717216839771,-0.9305171973702755,-0.8019370059790736,0.7134101009133516,-0.8314228277826019,-0.631246171427249,0.021084069906423197,0.6580194418296028,-0.6178658134867452,0.8682714784790653,-0.7944502135994813,0.6336054051438238
-0.7441108729737529,0.3895966641354842,-0.06704880681980674,-0.6269075220259954,-0.8125136905799115,-0.8178539562659064,-0.5759873644126003,-0.46970980644858185,0.4076193327816757,-0.14016110726414355,-0.13890335970272827,0.4401321580758186,-0.19958341522677436,0.09797140107137858,0.3832798914826274,-0.08079468475798568,-0.559743813957954,0.25598575090758313,0.6873127414790738,0.8189024230214215,0.9338294906943276,-0.8849759727821513,0.2508153885524178,-0.8186913124970971,0.7603246336947391,-0.018079090497228112,0.8665726580599207,-0.3603759844160188,-0.694912040280921,0.8937398624907515,0.005077807152515712,-0.3705720187190449
-0.6764317423396122,-0.8774121252179508,-0.8193210907463353,0.6715129471282137,0.212356149587682,0.5854080214036301,0.7173857520920852,-0.5152708450147199,-0.4524000654422533,-0.06580364592756172,0.09359686815356105,0.18306848779298845,0.7287669049680419,-0.6179177783273839,-0.6092896543560349,0.19539029585822298,-0.7531473310822612,-0.38288364109429107,0.27878501415437196,-0.6573444996742952,-0.834054024207912,0.3063685650658978,0.4431213264570908,0.6461793407180241,0.25783204044235486,-0.9403714136186545,0.16361439661786448,0.8980483073394026,-0.5825374742053242,0.23759610292130895,-0.9604250874813185,0.6370988085562264
-0.13028406496636857,-0.7037481981612828,0.6377339379368612,-0.16328120595238493,0.5128349847823985,-0.33963798922744504,-0.09127456047485705,-0.2648681378210991,0.9568888756922771,-0.8537527871465749,-0.8225501648463647,0.7926419745288962,0.31938040358773834,-0.5643298670958803,0.5159631633900381,-0.7984754790875204,0.8279271994519244,0.7644325382680379,0.341199406608812,0.3587569958922918,0.6726416995263418,-0.19085988795384523,0.4948421780092567,-0.7741167153829414,0.9489657348788998,0.9606720672271669,0.7904910745131954,0.09649168329783908,0.5506315257713437,-0.5595274075519001,-0.2890986696970419,0.596506071609255
0.3386560988889842,-0.9541434119123089,-0.24518462327287294,0.8699990132585371,-0.29198770777097716,-0.29689698490558514,-0.7214953571142426,0.3758005145432619,-0.07442754937372009,0.4621847201420539,-0.44650897701299064,-0.6952701439807891,-0.10986206159772882,0.8309098601029623,-0.7429446825197743,0.6756039672682745,0.6402087024379215,-0.05056043991555814,-0.8850565745344856,0.533509622407802,0.22145727423387873,0.6953668245894808,-0.4126053143938575,-0.9163613937592197,0.997332215446,-0.15509021085297148,-0.8402117048669848,-0.8916555695393051,-0.1508842780993831,0.19276086348286503,0.2291010665133979,-0.9711311694083238
0.6140062791331029,0.03163207075844343,0.9898321351905148,-0.3565517438291199,0.880842358778184,-0.46261751251492367,0.3119160473425937,0.9860939477389026,0.6085939202270279,-0.506709750100365,-0.039260449479344484,0.3559774782481997,0.8453712810729639,0.8599958042777331,0.752416282604303,0.38506823891279485,0.3260561598649392,-0.7712015253427102,-0.5248455479944221,0.036264502248376074,-0.11830442180794698,0.4971611287975648,0.975079277040571,0.6174731965888731,0.33485608713078885,-0.9120783825023353,0.14443014899155826,-0.2512695414462256,-0.7499628270460976,-0.3473818612823272,0.13781092816349472,-0.9789497459255521
0.1407823298822688,-0.525964350408805,0.6067310312363057,-0.7720777527546407,0.7863803821337163,-0.07718840260355386,0.40071650498308364,0.22420725190480506,-0.4505328728455278,-0.5333633851806321,0.07181919960041072,0.7035066179618781,0.5085829183677804,-0.2158323687513568,-0.6015820226651301,0.4839109022811494,-0.7823315572856051,-0.47538885510406703,-0.837162256735041,0.25336032119337704,-0.18465068695947662,0.2513902963100909,0.09640799879402917,0.5513039205568342,0.03564026258025632,-0.3640510505852552,0.12540403763796837,-0.9633344164187245,-0.38194690847434676,0.2145911329497927,-0.38795776970937035,-0.1135222154894977
0.3907133896232351,-0.8335739089712642,-0.025675134960213564,0.5394203001234534,0.5519981282334199,-0.04568041773745812,-0.9980280207152366,0.7893576789997394,-0.6094620113957754,0.6957909425759041,0.6482461511848221,0.4679908795594594,-0.9770434278139506,-0.09648056281099793,-0.0992411372896469,-0.20428959992587492,0.4184560932949144,0.99136391811832,0.7425496708927146,-0.5849233925280355,0.8751755779836148,-0.019414192174601386,-0.5156422254814266,0.11626013419445935,0.30213396351632493,0.7565667229740669,-0.1091904392502081,0.9449696070403772,-0.29447640203609815,-0.192601569698317,-0.011154266082890274,0.5527833650242342
0.6902724275729264,-0.1721912508178387,0.9857655026847643,-0.2831479977343705,-0.8203559458884622,-0.9859195816296962,0.9045525326607016,0.776705307003517,0.8801957460941034,0.5515180065603222,0.9656115774871388,0.7873846302921683,0.7548861374494258,0.9012890798567281,-0.2964656736758118,0.2600560290680345,-0.8681643527665308,-0.02495284368467554,0.4677923469427321,0.7225866606323821,0.8631462721704202,0.35114668290413653,0.3830738209000246,0.7563957934932768,0.6397455146916964,0.7444022094103961,0.8096864615332395,-0.347780447873022,0.6075899139679861,-0.3301561315726462,-0.11857014237904062,-0.8629263498623576
-0.6484099982378593,-0.5736111045285821,0.5002546105833381,-0.10560943429645597,-0.5434850338203348,0.1281234540470848,0.866852284047444,-0.532154572124101,-0.9845931490469426,0.32792146402746414,0.3671211575645077,-0.2946539688557974,0.1930522942690729,0.8266507546210955,-0.09433818930476612,0.6833873205803602,-0.5553335755193751,0.8994137416144792,0.8880271053685296,0.11224899582134507,-0.6739373328072857,-0.23696130252633751,0.8689588761662408,-0.4103532552954312,-0.07019900247995481,0.8880846769305615,0.13864539240096785,0.5824911948412919,0.4312623853735209,-0.33774924958638586,-0.9165133752298165,0.46794659497697433
-0.6756996720340658,0.7767638932363194,-0.7151935115223806,-0.7448740909795131,-0.3980690111517806,0.2166660392573021,0.008406001081619818,0.680303337814038,0.2173667359762652,-0.0902517982171509,-0.010196945679067815,-0.8294836542073039,-0.5630897374146577,-0.6747906004633779,0.23445826157139904,-0.5620470293553463,-0.9440889415487541,-0.3880559165208568,0.9292389473560438,0.6556320629022896,0.5897124622355432,0.8554918553793296,0.5008278919076459,-0.7053222263687042,-0.9637982389002793,-0.5658911156811512,-0.6412659388904485,-0.14511264519895084,0.33278866071136415,0.5191545602519139,0.9250183001231895,-0.0037145258896316147
-0.9145197865479853,-0.22528874670114019,0.17979854932496075,0.1474325075272196,-0.676468538350218,-0.07296640378148589,-0.8589476347262892,0.3234351567246483,0.7538539177334884,-0.31273364850143626,-0.5508115861637581,-0.16999635641346345,0.5445914992592142,-0.4628637542443075,0.541311031347391,-0.9466805248796164,-0.663219168931829,0.1520189973846504,-0.22294496126204,-0.7952303105773628,-0.7920980502121002,-0.7710530895642731,0.3173219813468491,-0.5696811343169734,0.048456676234873486,-0.26555625963988194,-0.44079909678684515,-0.5558766139995917,0.3876296967008823,-0.9300234146856201,-0.5051892084573912,-0.9759420285704941
-0.552873294628025,-0.8602419790871862,0.4887546367027169,-0.6012053455592485,-0.5684909645090104,-0.5414764522961253,-0.34167222198938463,0.8591377630694936,-0.23232333014629147,0.9319055069575612,0.2925773656553752,-0.07384530432443004,-0.2582729852638852,0.22718172156601057,-0.43923812252939953,-0.22942437250785086,0.9766862356027064,0.4634928371826612,0.13771293439675847,-0.8225327231823789,0.8154614282197761,-0.33575130813565246,-0.6869445251076092,-0.007233765609163001,0.5454739943943725,0.8807270759532477,0.6221660703126723,-0.3066658885996192,0.5853281045290768,-0.013545734647955943,0.34943111755560485,0.4897749561076066
0.803173009908386,-0.14866243099925525,-0.280870642568922,-0.7986655102309088,0.9931487755412483,0.18306709047305758,-0.13655583785971426,-0.9652228568517509,-0.8233248043442758,0.3754909749236077,0.022111625554780412,-0.6457829868948854,-0.13355094618559282,-0.7543926488654473,0.9101726372606218,0.5464552539671403,-0.19789302148877375,-0.8162576051530033,0.6610614188407626,0.16645538870461207,0.5824479801525317,0.2613829264166192,-0.13014254095152933,0.7383867280637224,-0.308985695470297,0.8548350477380742,0.0174944710927043,0.4069810860481695,0.1276367052909959,-0.9320284896237985,-0.5316945704117515,0.2516937993645685
-0.41277867669999724,-0.1787824030785765,-0.9331573821509771,0.7059051540090944,-0.780306327132551,0.30480103938090997,0.049367217036746736,-0.4725975216493452,-0.464950039952718,-0.30694900018133,-0.7626473266923401,0.6330418944288749,0.572974264198566,0.9428754897129235,0.29480326877007923,0.5865399826226032,-0.9549806006969213,-0.9357712534281817,-0.7918615898394508,-0.49395314367969667,0.5859974863263819,-0.5633065619385924,-0.9131502777191294,0.36972013981596863,-0.3632624904597135,-0.0693579446949526,-0.11491123022576288,-0.8140187948231781,-0.47875787617745513,0.8811713741894343,0.7087971906620838,0.5440260098746674
0.37601879524362203,-0.878787352059514,-5.4921029787768916E-5,-0.38188398056664297,-0.25243486008272376,-0.9436159096624894,0.07889447249943737,-0.3281057278926307,0.3946897308515631,-0.981257058293934,-0.7221400919025265,0.37578759998172706,0.11555440471465905,0.7429357012716256,-0.7871096836714528,-0.6215374137519887,-0.7349740384621499,0.41586931418417583,0.6187493780754145,-0.03488231248740581,-0.9638712702238588,-0.9170405558281447,0.6105251255659734,0.3838698946671921,0.5666569420927219,0.507320451100153,-0.7622475399296105,-0.8515901326978577,-0.6673026386603169,0.12424950308877247,0.04635312629815114,-0.10488298728264489
0.8503033052870139,-0.9695081292749523,-0.7898911480333819,-0.9559642865112556,0.437191330311143,0.16626851240309937,0.30994193718832874,-0.7707226410323826,-0.39287064249724146,-0.14736773009904924,0.3657686027657645,-0.7393775260015605,2.79958684749948E-4,0.06429034820627222,0.7075709990865844,-0.7748898759784397,-0.1001179208256362,-0.020639466958747077,0.9790452031863011,0.14590858145509067,0.8667827203427703,-0.39895628280495665,0.9648253545415897,-0.5603234793352478,-0.6909135535574937,0.6700243138802191,0.1986256861260196,-0.849795914834456,0.8216977066159907,-0.42726270810025047,-0.9621661738153673,0.6406961468903081
-0.2552710466957129,-0.500530639685234,0.6632494403576401,0.835895328459433,-0.3281648915431581,0.7175894879250093,-0.05042032096671134,-0.06518577269669401,0.4817293564951197,0.49903267058505985,0.24836822313843565,0.3827219396296895,0.547522895526396,-0.02251196542405376,0.3377299778298146,0.2778268522186633,0.4697248650374277,0.009571771828437159,0.3891004311094908,0.46695943898995074,-0.9837363141203799,-0.8064264018681302,0.9024592002640437,0.3158118428932928,-0.1781125652407991,0.37934259830565376,0.9247918320434507,0.6675764176010837,-0.6769806062987247,0.7931268103838851,0.4593127182667285,-0.5229670935541151
-0.6375433018352501,0.13953851365370618,-0.08950497294516468,-0.5622085700357211,-0.8435776753620026,0.025118186693273925,0.5861950570813776,0.0862629857213546,0.05330127424625175,-0.20969712004157137,-0.6593195432206171,0.8185020405074697,0.12269107159854209,-0.7929233700326108,-0.821972214655939,0.06961764901051004,0.6198210910659723,0.05249162634257143,0.2304914148515944,0.48434928920319753,-0.05399416401347601,-0.019886183581934835,0.12878141596975512,0.19743236481680082,0.19650285475014084,0.6387657702026099,0.9998554202509453,0.2091642366277009,-0.5796523781723608,0.8926340518313807,-0.7536099788967199,-0.39083651040319856
-0.6875588065837626,0.5024691413961027,0.5825327970259082,0.23138931132334184,-0.7836301706678006,-0.9877850034415718,-0.6825142609907313,-0.9720148454718205,0.7093472283969471,-0.05084117099186569,0.36803736840399637,-0.4548598395007166,-0.0537959045497447,0.6335564796237065,0.42307953356729344,-0.45164920893788807,0.7048784367667746,0.2993569788437347,0.9338743752281491,0.26186281197781414,0.05651339050351467,0.26487144288833964,0.3442691466236507,0.21302411980629632,0.3521042619350312,-0.5120086315835699,-0.6734795058410847,0.007419682623841073,0.6201046721730956,0.2755319582284217,-0.46130354822121644,-0.4103551443773583
-0.7542409497336269,0.3948604032949028,-0.47665391118228895,-0.019748633352602685,0.5964135247820386,0.08778261248827768,-0.9434196597287243,0.49957088460466226,0.8934932362375048,0.23488410826838546,0.5086594733362788,-0.8719787686502078,0.6311735470876099,0.2953335028143622,0.5916372260332678,-0.3900385769656578,0.28545836289740234,0.37574259169449165,0.24656352833744632,-0.9205384980810758,-0.03441760501831781,-0.40835386449261657,0.36220174127988747,-0.87283547149128,0.13035628128046484,0.5029124206292126,0.5191686506388442,0.0016808775458072578,-0.47472190831958927,0.8907237408414779,-0.9821400667750344,0.9589797227796086
0.09193689939815264,0.6925940192617945,-0.9245253956831188,0.18241337323213158,0.05838921131998576,-0.4767809265293954,0.26690811443091955,0.6631978347896335,0.41009138983964566,0.8827830093798401,-0.06144179695907792,-0.22436164410212056,0.30030513848057194,0.8906723284580762,0.29180547244816757,0.13165449809475605,0.5941346501299165,0.1813776974221175,0.622456720319752,0.7064335524050764,-0.9865196833033689,0.2599884875545435,-0.4550620107822059,0.7890539444653404,0.9067445926470536,0.614004045823622,-0.2035628306402404,0.16636293950720926,0.3417566504866456,-0.514114231240048,-0.5710072875735817,-0.2724563964733824
-0.2047205695662151,0.6552873090638784,0.32991040923337134,0.9023415632094596,0.6852981776380722,0.32937107508735397,0.5318494851669622,-0.6541868697804243,-0.7456234111585607,-0.45636603847030455,-0.5375072739892299,0.5206969309933658,0.3711120960837673,-0.22035056180369605,0.6992733537907112,-0.49489215491172134,-0.4580089712781794,-0.4330826082449901,-0.622123601616237,-0.5029034153111609,-0.3556359216432843,-0.7623151355168294,0.6127545579310798,-0.7350702068552175,-0.29809589749892274,0.8972991932504963,-0.4846104828547497,-0.49212652733800377,0.8896193820170086,-0.8410172103020837,0.09018102394838023,0.2279140729965321
0.8178749278439066,-0.2592535519128212,-0.47248294857373785,-0.8696183044491894,0.49131643690129634,-0.36651306808846607,-0.31304805939271785,-0.3095092296271509,-0.8738759258486501,0.22314228988894325,-0.8202095406919816,0.5160607459764408,0.9797431397643561,-0.5138937724896717,-0.34552965665130286,0.6696754517747316,0.37129235553913364,-0.8240678364160445,0.6826217755036894,0.9865010400990666,0.9551081506522687,-0.9636644181189102,-0.5260759939510178,0.7885968498492559,-0.20705290672561083,0.08096847966029208,-0.6438686734642829,-0.703768909371496,-0.3477165120247254,0.1102211587492663,0.9172122461829024,0.06992572119325136
-0.8455262405090918,-0.08058050786784543,-0.9001603428998053,-0.37841078464923994,0.3315906425919599,-0.2699008042902753,-0.8710917580540465,-0.40121466568350495,0.22571515028761957,-0.5198744729566473,-0.679777814177094,0.13099209490754782,0.9205145998831521,-0.6181091964566459,0.6039221609161844,0.45343464116848553,0.20398083729103256,0.3751484554273816,-0.33876648631574824,-0.9060057123827825,0.20766263313515232,-0.30092555913741625,0.3593438937588025,0.13498109740286024,-0.2437698938361399,0.722497044131527,0.2759563665182323,0.8225417192744755,-0.3884336431105875,-0.13338670722095647,-0.49138468392721424,-0.10294130261687973
-0.840035308964548,0.9412530661567673,-0.13050404727756604,-0.2849351808722327,0.8705781635851599,0.6877487547879442,-0.7783696940788052,-0.3581736946425631,0.16352884813775725,0.6956847261267018,0.9951280119747439,0.10351119316131019,0.21823613046644308,-0.21152439543000345,-0.2322702873404514,-0.21687832001801977,-0.2808325464261252,-0.6403209660140636,0.2022351905067683,-0.5038491389647777,-0.24128646263918507,0.6473335900321453,-0.3959495097649226,0.10808023915967757,-0.4296419413261965,0.3916301837361207,-0.10469800136164675,0.3427698114638156,-0.5732653099721412,0.31458051302962664,0.8976681247301219,-0.6812591954289959
-0.20709474772012348,-0.3244436049908659,-0.2521472605875217,0.5664409514576798,-0.3883841926166154,-0.5229067834384222,0.3017674995883257,-0.997292703869199,0.3007557072482434,-0.9060705523828778,-0.35028528305512485,0.05170611471854247,-0.2713068958567211,0.5780208757179168,-0.27602399859693727,-0.21039922502213515,-0.9299600525292462,0.33938850072183957,-0.2585396403324307,0.009451619123662436,0.4334514449122988,0.5576567272649471,0.9824195611090012,0.6440428514432563,0.5329854585521188,0.5994537739427097,-0.6843197892890212,0.4401931598111364,-0.3263345667247468,0.9131816176304033,0.4440713961264031,0.06825709472601749
0.6614882185408439,-0.8918501705933821,-0.07680054051482665,-0.3815725581297482,-0.7251342990317473,-0.11925790296757954,0.1989965411941519,0.79559314791312,-0.1999371081829382,-0.43402788348908694,0.8167303872081106,-0.10403139840467368,-0.7455567409347326,0.946584782228644,-0.7848077499950403,0.4762284679175959,-0.07022709200738708,0.09146574244185568,0.9329734493185475,-0.5414419354606896,-0.4402963519224432,0.32960056130876425,-0.981793511583857,-0.4100934226138313,0.8632664469422604,0.45896982303489153,0.971339204550346,0.4812572798834398,-0.5748162659999541,0.8377379753722698,-0.8514036900686115,-0.08797298871376946
0.7701659419863514,0.3312293391116534,-0.6834576533518242,-0.15186625810226073,-0.9554559058037297,0.10011527854024083,-0.23753918473684665,-0.6803460463874236,-0.862874195751564,-0.31352632817781845,-0.12461954707195044,-0.8090401576855892,0.7523488417781645,0.8945930796980306,-0.20035866695828086,-0.8209992760228986,-0.6076060667973913,-0.20502413888967963,0.3980096839065046,0.5771723726157412,-0.5889543315404584,0.41587638588030984,-0.6314029254890683,0.9162050644979847,-0.1755914219611292,0.6934465658074096,0.3540299736960608,-0.4204906797387826,0.19845844627786002,-0.7179220869573837,-0.01810458445583496,-0.8618871896677152
-0.9361125391731957,0.44707139478651037,-0.4921836714157022,-0.4006720359643481,-0.7004783836728248,-0.6488561125658054,0.0813090978058324,-0.0014819602763218587,-0.5309760788126796,0.12290416418597427,0.06907103942980641,-0.6113018843929325,-0.5422730031936245,0.6243509988131715,0.15935041632610591,-0.8268430080854399,-0.48696971180673043,0.9145248193799336,-0.5588923543523208,-0.12567563853275288,0.12483022333731264,0.20780052418546457,-0.7024689035650082,-0.9586981001832688,0.4418800379661514,0.6813246704345381,-0.37636365036697605,0.8262559545660371,-0.07488222955889978,-0.7552084435780819,-0.945926651740516,0.7842253154054777
0.6140913295503314,-0.04988616978541405,0.17559662186263902,-0.7733273863641954,-0.19164921448979766,-0.41301002642786644,0.04832051206095822,0.192546179092959,-0.020779081873671945,-0.816089478232022,0.8746360925657541,-0.9331663370350265,-0.40943367676307374,0.8719612285048961,-0.9517442994704748,0.9723978802739555,-0.5806309549760191,-0.6034567916555578,0.7087863080789603,0.6750461010647655,0.9052407135043383,0.39335332298436954,0.6613280171072469,-0.992038620719621,-0.5013803788415974,-0.742570948065423,0.1780833687240373,-0.4179033884210135,-0.6521802796076881,-0.6632342426941089,0.3375139338323434,-0.24158905113196782
-0.23762969722254756,0.8245895617177073,-0.8718232068882317,0.2893861128675783,0.5703214702305766,0.4294490586940374,0.31981545846446835,-0.6722944505038666,0.28957874480670154,0.6698663753768916,-0.6329449905029567,-0.9274219246486455,0.7300148411818936,0.47036649283610155,0.5337609750075296,0.7668482602534366,0.8716152095762257,-0.37171802219955374,0.4711484181033556,0.2912986021339501,0.7498949629914935,0.6758076164159137,0.9690486956398248,0.5441198536025147,0.6791486328618068,0.6793589948969274,0.6211190023929603,0.2332687350458833,-0.6446336462348836,0.5983658666875982,0.38403548367411644,-0.4618010942230515
-0.3947422169820929,0.2683477854637053,-0.41289146450137193,0.023357141748782118,0.05320656058453599,-0.12290677395553207,-0.36358747245434997,-0.40928483513131075,0.5825958326075003,0.47420827001685084,-0.2873529170635887,-0.8111990986270043,-0.6522092413872238,0.5766439639075609,-0.49869290273474265,-0.6429564440585969,0.7130162145144512,0.3350594897643695,-0.3870052442072067,0.19417154165170647,0.023713514674611913,-0.6267800574539499,0.21606913040732034,-0.41142062231177445,0.42087076237315,0.3340741702196852,-0.2910492142619301,-0.05054740687294634,0.7671357103921632,-0.6548693336542348,-0.6779452969575173,-0.5994470971219348
0.4386224579031237,-0.44153381810195746,-0.38427854854999377,0.14150162050070625,0.5200709872207463,-0.37422040743741714,0.8737190147196987,0.5051248685568419,-0.9945288372736463,0.7364817373883388,-0.012408747314865742,-0.8789212296922941,-0.7667837278759477,0.23451578131073103,-0.9350118043593001,0.20729878035236693,-0.025695794324690713,0.08750202833993193,-0.38799331703470563,0.6846476041382885,0.34405721038249437,-0.5602174245000957,-0.014373167408387122,0.5464633165698733,-0.9777150740544847,0.40863976570464855,-0.9337487653784613,-0.2864631055229008,0.8945500093653007,-0.8774828506022609,-0.8493012469723558,-0.5336225304353048
-0.3396085843702996,0.7585157432852001,0.030773462269579444,0.4704515650384442,0.43817960017302315,0.8807112061763831,0.08545963817495839,0.3964098772362701,-0.7627824065881408,0.32457239936301163,-0.7054368624940048,0.18614442588214852,-0.2716105640841686,-0.6609305081290038,-0.8210211094475157,-0.8731538704806228,-0.08062312753026313,0.4031926579789975,-0.6991919990181299,-0.9309384170596184,-0.37600541988568703,0.8868852265027733,0.1266661003542784,-0.6389243929750839,-0.6858034169671423,0.6475626795231322,0.8551928743963395,0.370774140815495,-0.9235626068622742,0.42076502735327703,-0.620206707476191,0.8274709065492352
0.10062822493577928,-0.6246176847510703,-0.8668840878854029,0.4980584411406408,0.7538210919746824,0.5492108591641147,-0.1979659622111305,0.33377214076121864,0.6022608060590768,-0.3820908717133551,-0.5068540901030019,0.798086969547873,0.5477303108209948,0.6126105849051386,0.4578674293426417,0.6467883174199507,-0.5159348130262793,-0.08185283235887675,-0.4373030887842404,-0.8314056571740767,0.172659051555353,-0.7461815881319935,-0.016160009351229743,0.5802291136122875,-0.03302684996741467,0.547217736396282,-0.06339440166936217,-0.19420303742539513,0.5660674918141291,0.6137166741030309,-0.6975437795155959,0.17347855000857848
0.8516111417372916,-0.7291313534255843,-0.6525101998408402,0.27259558172981735,0.7934895261681958,0.10107135010602963,0.22567056895574966,0.7169841230709775,0.8682477193684088,-0.20933281506966228,0.4657460887062299,-0.5530684967207262,-0.02643424964622909,-0.2336755986435446,0.7290372175440163,-0.85275676732726,-0.9218488623165306,0.5317444137122906,-0.1414298851155753,0.5792756651531099,0.9222688408238451,0.578476351598308,0.042284767882397656,-0.7270763171653365,-0.5087325109020295,-0.9170650275352645,0.7402835030576758,-0.855802944922438,-0.30022969621452344,0.212169634708266,-0.06571401771661356,0.9188458047615309
0.5979112934124595,0.756218943087188,0.7281604460137845,-0.32728754908735813,-0.22496618533657542,0.5099642332047702,-0.6383962269727625,-0.8887528228127675,0.3300951730592425,0.7588273675647008,-0.7052538606511127,0.18026683821919454,0.4836749654667063,0.7418916073021034,-0.8203402610016381,0.9833388690198375,0.6524931970487706,0.38000737163759046,0.25545311942121685,-0.38856263606448027,-0.013736634899441436,0.49410135649721565,0.04878923109589639,-0.4687009149537342,-0.8525492530834493,0.35443484075607223,-0.3631056294506554,-0.06582625695317135,-0.4447959893955524,0.5621257503695121,0.6718295304087765,0.8803323660829379
-0.5535294274863443,0.6001442406901487,-0.4297544801239781,-0.27898874698800635,5.319648471213689E-5,0.2534372983012645,0.5318927388434149,0.49171484728811876,-0.8334050416254091,0.6440993550664675,0.30339511787475915,0.4637571344678113,0.15030389862913696,-0.1725975363590857,0.04403940696434416,-0.21762691915628452,-0.6388302729405086,0.935634284687,-0.7638663912953865,-0.2941099413487738,-0.09419566353983755,-0.24203278436694564,-0.843403298156149,0.9088742238881189,0.2371545119427816,0.7163323531049892,-0.18296287946023004,0.28730448861492675,0.6546274079580339,-0.5566411827412419,-0.976274626174334,0.8316785248859659
-0.9338138821056439,0.2364895153299469,0.10712092242887516,0.8682085897491822,0.5351922381959717,0.21053978036331733,-0.7621443898820097,0.7941444237387036,0.6007591458827444,-0.47428777893010676,-0.5382765759921677,-0.29916059257948735,-0.24369608761118688,-0.8830893507295281,-0.3037490788478905,0.6082532570513906,-0.0095905709078008,0.4615233929391862,0.24799049808680884,-0.5728362350168994,-0.09389954965015535,0.09667424826101145,0.9137067081947567,-0.7795625802258417,-0.5243819234608167,0.4577005253301274,0.11988492711071497,-0.14771290431192896,0.14978956554067335,-0.08701410922844754,0.24285303905265643,-0.3054768107332795
-0.8387868050699046,-0.2842884466432638,0.6901562631026652,0.7013829297961627,-0.23477222063286973,0.3276087735563933,0.29054602168011034,-0.7170951921801414,0.14361291415985367,0.4349179693395433,0.45211164093279477,0.8300787868023114,-0.21095562418136793,-0.38515520740178255,0.8081441573396229,0.3827550194435665,-0.8052984421738083,-0.7504155114751718,0.40063032754453665,-0.016829902349601022,0.0024995385829269523,-0.32496695840333234,0.6427184470530072,0.5100225649022267,0.7159216469731251,0.829830156806572,-0.29872677481699617,0.5115234228136951,0.18199065878553755,-0.013149104690307611,-0.04364732100242752,0.6601986546613123
-0.5576725781121832,0.01757709363304727,0.26683954258009823,-0.4795222798649521,-0.7471004643703332,-0.9953354006856039,-0.8332004951853589,-0.7815343059969881,-0.3177036411669014,-0.7422450382688706,-0.28715778054542196,-0.24976162147326364,0.9817262633070558,0.14731083840030101,-0.13903549737252296,-0.935655502553093,0.7942426132129983,-0.28026762833369,-0.14077338705307674,-0.2285273819097271,-0.8882676144950343,-0.8952014558216632,-0.6715381151170583,-0.016322848060524864,0.7533346845113105,0.43233948301521896,0.38966422537465895,-0.3069988511662807,-0.1736046133593454,-0.14989081017235417,0.9234177006885236,0.8737680927994531
0.2694956405439006,-0.6614449748133466,0.11929019690206988,-0.5399081674700534,0.1837852448697257,0.650421637802848,0.5729069533774869,0.6097800738643926,-0.2673892516854055,-0.44588555445343525,-0.8597308960351768,-0.5695254943836319,0.6798337915956729,0.0665068885790685,0.2658157812747064,-0.00111383855897218,-0.9026898696718431,-0.48084268479642156,0.8112057584902352,0.10952360706096798,0.8026258804387509,-0.7980073210381688,0.8020056326028226,-0.6008300014906565,0.6939319895721741,0.06927099548994642,0.6167252219867876,0.618393238655738,-0.8046660646186525,-0.06525844586033513,-0.07274641208858523,-0.21574169317570324
-0.1330603410111797,0.32021798048077077,0.921893173160647,0.3378850803948563,0.41427248731149313,0.30821652113097997,0.08083327605156065,0.7955014438366388,-0.06505912127144509,0.5709026904083243,0.3305068955891972,0.49711218856447226,-0.7385005171715586,-0.5715723040885217,-0.40601210754342776,0.6168006601858551,0.900185441545684,0.7013991091854952,0.4147373324010788,0.4519323166201916,-0.10178013489016524,0.4444413746493705,-0.11119900243670156,-0.12843155766640857,0.5942595374676629,0.2747748698676056,-0.46417804384717654,0.38009602496504,-0.12049909869702313,0.6152886237462689,-0.4119842336091961,0.799914258512032
-0.46360748297634036,-0.38959157521943166,0.5276829445141313,-0.4587039925835452,0.08898519992147125,0.8912711174285008,0.855690832815365,0.6543730400297343,0.7424339177629751,-0.010190092349812607,0.056182577085583274,-0.646124921715274,0.8395106783398911,-0.43995938786009137,0.5260476913467407,-0.9679543369070693,0.2649173825505682,0.2864764817989538,-0.30981867220988035,0.33667343496874635,0.8958619455246721,-0.4627191193974909,0.27117152846056536,-0.31953738289284916,-0.23402308099956315,-0.5885684038032077,-0.6776552185622933,0.6337394411921027,0.7738108217088819,-0.20551834594155638,0.3316312797663836,0.723093507980435
-0.5732474213054282,-0.3978139383111021,0.18691504086714517,0.17640692787757772,-0.9068187859537424,0.9120675779610137,-0.8824295537801641,-0.15889555757578822,0.5059239429943068,-0.9597361649033931,-0.1329202437535546,-0.15779475681760613,0.644484711720845,-0.5421613122017057,0.03771049120653158,-0.9919736824115617,0.6984282611713759,-0.41529535326572997,-0.7310646719381069,-0.7515961343427537,0.3132675286821147,-0.5456184112665936,-0.8055210547873,-0.6313075994984745,0.7912783408072004,-0.7396048358952776,0.9685808201265855,0.8213619086734312,-0.20338072574824606,-0.12480439201518467,-0.5780924713218634,0.6465567772806862
-0.4464134173534806,0.7646832148193765,-0.014885408942101108,0.5085082540347432,-0.47121147362566496,0.40949568971961003,-0.822761905333252,0.05575279990562687,-0.5915771884088536,-0.07868121304120002,0.29984709661763853,0.12977741357379835,0.26121679167251854,0.2535048096446437,-0.5160064045529262,0.5597664546318049,-0.6007263405254679,-0.9283196957042079,0.7393960560109156,-0.24566584024893845,-0.757695618931008,-0.8139524683595758,0.10861359162217243,-0.516678119707833,0.6613414260740293,-0.5945797559510628,-0.6903524499400153,0.7400277821350101,0.4422200086532255,0.6862586608143697,-0.1093321954181441,0.5436467987284692
-0.7852609166195161,0.5021512621401178,-0.8917160089288703,0.34697102378169076,0.7210184487165954,0.8975443318105951,0.548758978752866,-0.24458890179558246,-0.06525215497257042,0.5470793801829104,0.5399399908243707,-0.6765755275042533,0.7147178855514944,0.006189280852058943,-0.7823589326671574,0.9226474289945823
0.42659257631547876,0.4185237649912812,-0.6235433458569415,-0.9230683967346724,0.39663164477393664,0.34105050704608586,0.7329914791849146,-0.5465341249908793,-0.5814615789693494,0.4655477647040027,0.4233452949222434,0.8177764364834124,0.40596344539494456,-0.9759109657809306,-0.3409513098251393,-0.22784133669670315
-0.6048420347519343,0.3207074881541685,-0.11688867953262716,0.003031228722711221,-0.5577181814872554,0.747109301595025,0.7373804930159744,-0.23665593043961874,0.327185835330132,-0.2814785376271478,-0.6245563573759163,-0.6421568511692912,-0.8407954659783581,0.7374929073869245,-0.0956536674456967,-0.9162031794360088
0.7878517718208229,0.346649471498784,0.08643212984736892,0.9319322993586507,-0.8267344102071759,-0.4041134434365583,0.8009966624022153,-0.41134145429600166,0.6857014490993081,-0.6305108030027595,-0.632873790122843,0.7730156101025885,-0.31967326658070205,-0.4720529866312544,-0.40079847073702024,-0.24515938302071905
-0.370395075009357,0.5997694224396164,0.6017464288357461,-0.25656223208672513,-0.37515505577657104,0.9269383345622577,0.7628840113788229,-0.5155682457865094,0.027278009741038778,-0.7869921233409927,-0.33413790868471294,0.4987313553674786,0.8673090988154826,0.8501210411882398,-0.035934670105361555,0.1709230478714927
-0.459120888510137,-0.37440895317537426,-0.20515272099092452,-0.012790092212053183,-0.7048420815461116,0.36377183300715776,-0.2604317024328222,-0.5889370300922536,0.21457649075742768,0.07652129223954507,-0.8170727153299124,0.5895470111627974,0.322492048966591,-0.724361780075923,0.3328785148148041,0.2451547121099018
-0.15018354547034352,-0.7567670113585052,0.1331289659445669,0.9799057315632191,0.7782016713086808,-0.7389308547159541,0.8334130337150631,-0.6913917117415753,-0.10464639223170935,0.06749164435291455,-0.92155373389744,-0.34275845857776877,-0.7523420092091464,0.14063571932384877,0.9035279878461555,0.2658461620272208
0.5234399066982114,-0.20081151393162222,-0.7054654000716971,-0.8490584423107888,0.9537737792701919,0.5670529996716098,0.08151133369335817,-0.5086273784721111,0.09090155850889303,-0.5797629063780483,0.6242458733329941,0.4687280709424486,-0.9902214002069616,0.8792164752476344,0.03715140000465755,-0.8651740392787703
0.6804158619954213,0.8756271207779112,-0.0514856941869577,-0.48947231344229647,-0.1251368812836009,0.03937297201085599,0.5193013100634469,-0.13718515817291754,0.667000876869436,-0.6382809939590752,0.31474879558459135,-0.7955663941246733,0.36244960741492793,-0.1962164397456112,0.17673220826073455,0.2503624341005988
-0.24287013449811812,-0.22419276316499115,0.8096089308425856,-0.6237338027944794,-0.5483300031410645,0.2070566021112099,0.40084186139826294,0.9507647150876812,-0.5605152995080305,0.738549159693916,0.2943184382558297,-0.33299641378367606,0.8376648923129864,0.08068720750730929,0.27384749259803143,-0.15056469918522852
0.3031575969155791,-0.5750676803535069,-0.8381870359267181,-0.050564546495140084,0.8330762568662693,0.9008917066918971,-0.5299602762996563,-0.23704704784813435,0.658117109587252,-0.49856732125530323,-0.10418157193496169,0.2857281454842384,-0.0549674242779612,-0.09881570571691345,-0.5223717873557778,-0.7183408554321358
-0.5904514525455724,0.8955333165955193,-0.14320499303438128,-0.09007542701360682,0.3450730708927683,-0.6850369479144862,-0.019143280222201575,-0.537146710805054,-0.37071772024129146,-0.04916889240373812,0.6324486678814809,0.9037124373612861,-0.8826650079168612,0.8188044962159375,-0.10615386777088665,0.9515784903802347
-0.23007771418347045,0.9301288981016795,-0.2171037663222659,0.1447023133770795,-0.633689910726561,0.6366201042675903,0.37241061361174443,-0.13416249354832388,0.7169872888138198,0.001574822509047058,0.8793769843541184,0.6353595020308078,0.9174839133151196,0.4554639621856673,-0.26010034765172296,0.7084015924046165
-0.6256228209122954,0.5065780078176023,-0.39324402134909775,-0.20580250989717896,-0.913542638684387,-0.5774902577726386,-0.9108865954453136,-0.24435761313154747,-0.021522947611321896,-0.9528178479844518,0.40033554224664036,0.6808144007878261,0.9618615890370854,0.969303691901126,-0.9125347982680996,0.8154073071435344
0.2164685828000581,0.4007099658210411,0.1869466318447237,-0.19611782740334438,-0.8526203150391303,0.6425113885168896,-0.9442965052587344,-0.30055327013354005,0.6823615987539076,-0.2305096577340724,0.8009738922818748,0.89082896593069,0.022312120821526005,0.29595772999262615,-0.1094940697762643,0.5451275503776221
-0.6485428973080147,-0.6265189202641195,-0.2545784802265454,0.18138906509567265,-0.8328767189909285,-0.46730595104769135,0.9012579352476311,0.6134791241055912,-0.04044377674905131,0.8935996935079482,-0.33159853442209175,-0.29833164995127137,0.29590851452715805,-0.8484542948281115,-0.8686714191494045,0.7059948249555488
0.2912257463671917,-0.22642529073450124,0.7967750421865745,0.03191622873132194,0.1467152240381806,-0.14068835211873543,0.2341556383246015,0.3233912085334809,-0.4129662077981917,-0.11187019028120604,-0.352740165288159,-0.5926421617182318,-0.7643208617807915,0.4044133072685272,0.03759786846205193,0.8843508267329645
-0.573132333697473,-0.4146861612412125,-0.1646843842634409,-0.6017503023930422,0.25918354626707996,0.5904766706441849,-0.0751467337671321,0.37900670629598165,-0.09561031196940362,0.6107884233247729,-0.6978794744522387,0.8019713109640467,-0.8394120066192496,0.6132789879664842,-0.5717047966362885,0.9300822508580584
0.7879428523594794,-0.07811367827839821,-0.6105230815038467,-0.12003438291636126,-0.47505990276420507,0.9660091977367318,0.3964738115814015,0.8638352316770179,-0.13678064910663745,-0.6494703144926282,0.8162765213221668,0.04627544326691502,0.8291229514877296,-0.2393061635999183,-0.9853397388026766,0.9542822309498877
-0.3933171510788822,0.963882275732999,-0.8231148662105257,-0.5123953634117773,-0.13889988070382597,0.45348446665175146,0.9232071986168131,0.9551178097135296,0.20930810389185117,-0.8926365498121962,0.9483464023532346,0.281053386920763,0.12852341218702135,0.181813154394741,0.9460511111029981,0.05827347613516998
0.1731957633222021,0.30144149194711223,0.1601302006298877,0.07919591145935811,-0.9745511063196186,0.5210341323536536,0.3359164752761039,-0.3313041533087995,0.7976336344002026,0.6388200912269315,0.07953789482114115,-0.38020212198506886,-0.2626214294353735,-0.9619325103502685,-0.6892127204647722,-0.4253429888244784
-0.871342357553279,-0.028069838946201298,-0.83017240386698,0.3370016603191235,-0.06565510623640636,-0.6372861002176122,-0.5697138846957834,-0.3728793267905599,0.4361477387465924,-0.8571138612982481,-0.47835941673159144,-0.7670648439187127,0.3866454250099878,-0.11137194249870563,0.3696646153369354,0.5519881467436343
-0.6822490573987359,-0.682612390630503,-0.7269308048599155,0.021363566921013488,0.8169045446940819,0.07167478601343302,-0.17284104609861917,0.6886118008810833,0.48656979805599954,0.25925044353607074,0.575540430221978,0.9448299299919103,0.32628651970935496,0.700979106944432,-0.761936688772811,0.23921249069710204
-0.7980041581675628,-0.5119620832264775,0.17441952671986893,-0.9806563947860225,0.05189514871283052,-0.08676613960241131,0.2191157363959948,-0.5363735821461562,0.5374947010448274,-0.28809597187874614,0.19060064425211976,-0.4425903594625793,-0.5099134462492954,-0.7429456719825576,-0.8682219010750958,0.8904146815891005
0.4463863562030248,-0.4346025360686048,-0.34547334120579465,-0.551730550639735,0.13622219293047455,0.4618680304535081,-0.20595290457518867,0.131632937301007,0.29097719517044784,-0.46548317484559276,0.37456468297861445,0.9180694252677355,0.7851946004012467,-0.15338397225342604,-0.9538851508421533,-0.11012094534563044
0.4361129350073518,0.8813472365034674,-0.4221966556986183,0.8128652796310774,-0.4621468968451168,0.5715306980741881,0.6364638432004126,0.020633948631687993,-0.47856898744185505,-0.6245196919123446,-0.13581190802858223,0.6912178965907652,0.008723783078268044,0.9380894766441297,-0.0012908633086319288,0.19746356647385133
-0.03203035037177937,0.4069009152798184,0.09844289489762659,-0.693869055563336,-0.3196644112076785,-0.05709522925865729,0.9894999568281482,-0.7704634104486487,-0.2084606603410042,-0.3785437340883979,-0.1134700982660164,0.20013468470835538,0.8494655821475801,0.43255242940008976,0.15779366079386348,0.11428550310301966
-0.5818301213932893,-0.2921611201453167,0.13052103339364707,-0.49036900157626384,-0.8893843141520361,0.5337124207574395,0.6158137281444889,0.14135124203625526,0.6969448184835905,-0.5039293812053629,-0.8219432800849167,0.7212960613050539,0.8220329782993963,0.7258749347702071,0.0820053887867962,-0.6312796723304261
-0.19446381685514336,-0.5812263308278682,0.32141714396231946,-0.8895608443997343,-0.5004129802580122,-0.047320027752504545,0.1663006811865928,-0.14613303845937353,0.2437520251347669,-0.8960803253003218,-0.7384409133845542,0.5560828070332073,-0.4161842955805184,0.981364653858469,0.4680051303276047,0.5227124306441155
0.6104088734136304,0.8459901843225752,-0.6425686713437835,-0.8554145297723064,0.5254526609086794,0.059081037023529515,-0.4433801780849935,0.3964775404086236,0.3588423213312262,0.41988919950737036,0.9808806143298574,-0.09487443131262197,0.6347486937403424,0.23362543308025763,-0.594090353266377,0.6983988109639327
-0.7736326870697439,0.5932433167935678,-0.20253891391555245,0.7846039568246124,0.6398994688704218,0.5635537357035441,0.3515318641838341,-0.9420336662691062,0.5330015110557091,0.2237855406865299,-0.706540549411272,-0.8301371871799821,-0.6001075721285678,0.8547861870671938,0.14253631024817315,0.6250451664692462
-0.9552364711288146,-0.05036586780857433,-0.6305512899761077,-0.29212228025736153,0.7170848800830825,-0.8184863190709459,-0.8429498080824072,-0.739541844817492,0.5968593933568977,0.750294799774649,-0.6793176833811372,-0.9432637309535381,0.6948260936792052,-0.050781247646426886,0.35246020894070207,0.006294199936826228
-0.8279315587548872,-0.003907573857697688,0.024641897348993247,-0.29978469388555085,-0.41456390515068264,0.757622742306231,0.45639839865733856,-0.29175555627272587,-0.3703574028869676,-0.3358367871718426,-0.6270503308989739,-0.5412312040398146,0.5738529976740567,0.8213726295604604,0.7856187541680046,0.20772693047252067,0.780030487408621,0.7782891571598218,0.8947535789745391,-0.17025988741048992,0.4422621550381105,0.2062796589014253,-0.16218528508031027,0.08191667748253506,0.6356891989736551,0.5309177712472446,0.9311608739813184,0.7896097317544408,-0.31956459814780946,-0.36107821714768207,-0.9592402999170739,0.7568283978461852
-0.9113530153488443,-0.07513835913488975,0.13641035448618033,0.19109202629361843,-0.8488219367556398,-0.8525765682844615,0.7700835245261108,-0.8025692878047137,-0.4559231459181592,-0.16740411119173926,-0.36050629105805143,0.38789293355313026,0.2639422990417586,0.2912241076137698,-0.10491734533447006,-0.998299324558011,-0.018052350295950426,-0.2890488073651616,0.7097242494574088,-0.780058536074957,-0.4887239097373408,-0.7623510552057184,-0.3340068322628629,-0.47871916602204534,0.8653113369323893,0.4790150110474565,0.2253155568749532,0.991907103119563,-0.4305598949262157,-0.5340267152852776,0.22360123568145318,-0.27445824315228795
0.2565908265165544,-0.4329470048401398,-0.9870710232192013,-0.83583014740507,-0.12449701867449736,-0.8033648422989779,0.4935206545429236,0.17332410364764916,0.7818305640991199,0.6442638200446682,0.38661729636373865,0.2845787416698051,0.02807098843183553,-0.21611578207403426,0.8485332811065007,0.10441913314947082,0.5032722881884368,-0.9668209895216895,-0.5975133971783864,-0.5963703945084364,0.1572928804204785,0.5288860034626788,-0.2211364958147275,0.9307474932609727,0.8955684906563219,0.3185211899938425,0.7452968793938184,0.5087674804708797,0.6062278131320473,-0.5281119822359679,-0.8592998529264757,-0.45303082642693315
-0.37905381907454516,0.15833275929142943,-0.10759988417253341,-0.6428143244832902,-0.08723716631166023,0.7865980312292711,-0.9467221061719708,-0.9476520390474812,0.5312269275520027,0.8642247112965606,-0.871730427401129,-0.8471258998517939,-0.15860621879421233,-0.9932860367797591,0.014830667316478197,-0.23331623417621028,-0.03614092140679759,0.3452972341608138,-0.8567176288569389,0.1788371648023579,-0.788859030322725,0.4529528830794891,-0.8453419757821037,-0.07687556410306451,-0.5882542074270578,-0.8366719888089214,0.22168852416728635,-0.2932391338267575,0.36494775106928024,-0.49905530879371596,-0.126413381951761,-0.8923801521174279
0.12139579186364369,0.6407347097907157,-0.5176058578565608,0.8916679897978512,-0.574137895860001,-0.7936554740319464,-0.5446421118074973,0.5191828607839624,-0.04450539999525227,-0.40456977003938244,-0.07546417926930427,-0.512015536346599,0.6138873891133378,0.03724218903413812,-0.7555192889946956,-0.14028770173511873,0.33073831776233575,0.47059956798248126,-0.29854533471226086,0.9547535067685544,-0.4311856931451439,-0.026787714899944026,0.8017501857328566,0.167396012187065,-0.21389010264152697,-0.21952811456514665,-0.013118220489199972,-0.4616586026862197,-0.8756529078770408,-0.432842737413764,0.9942954039743988,0.8437734898091283
-0.15198515701434778,-0.1791367419073855,-0.42882250977961367,-0.40114729262466486,-0.5211639459527768,0.33943905974772215,-0.4769682876909147,-0.7212805301519154,-0.5262151808416442,0.7506876947973666,-0.6087138167141763,-0.40927412842812183,-0.3061676709722523,-0.5044261302579032,0.9894255094519075,0.707034350678605,-0.4996445593663088,-0.13644805566256646,0.8147195250785255,0.052662782071960734,0.06445332496833034,-0.38586920931095436,-0.8482342850433728,-0.9431244184014569,0.5633388900375769,0.4323262280985858,-0.0021195361347068342,-0.8936996257772978,-0.9891552886161785,-0.9357554569621565,-0.11156614754581451,0.5201886127865631
-0.25703985059219736,-0.9719034431777436,-0.860959199566282,-0.35909488314439497,0.40137411924356914,-0.4697553365840279,-0.9293330507771018,0.30801197480385945,-0.10968949137578177,-0.7464364436976487,-0.959817031812292,-0.6180217068179754,-0.04488450654900644,0.5633880555944781,-0.06494506404033462,-0.32954350269482124,0.3678423473244299,-0.4820044407805002,-0.8592724254558199,0.9765849817109755,-0.1188767983797856,0.9319818263769728,-0.9858723449188436,-0.7955845956508178,-0.38658021292622036,-0.6351403333255865,-0.7648504588569871,-0.27178046513674126,0.5671268968042615,0.3385862126582664,0.2246948177670478,0.4388571040313538
0.6873262152169151,-0.7272102970612071,-0.3849832281082759,-0.8859810105003689,0.8216708595966278,-0.04876768785430152,0.24228272285591768,-0.3917689870049381,-0.48760602826959887,0.6006258967970108,0.040624680053623186,0.7171383842287362,0.6776326059708004,-0.007006390615512892,0.6115554364330653,-0.9729851809658536,-0.07129114149590143,0.2773131281330512,-0.24970385974124398,-0.6397762763411237,0.52196514732727,0.48554899479518077,-0.26547395869474655,0.38449371585889347,0.7582026310097703,0.7723829151603605,0.08986450221709852,-0.49907602095558423,-0.9802747021417773,0.7848594160913889,0.9292001070016827,0.0494077194085798
-0.4413307404108169,0.904477620504214,0.7612600998231185,-0.2621301296233236,-0.22154138075364793,0.2665736377061225,0.3617431243075826,-0.5433830615416744,0.3729510643782574,0.6017573199195085,-0.10395981963977396,-0.8655628646677969,-0.8017468766997502,0.2203618615366092,0.6407737514803611,0.34592853635352894,-0.7017815573687449,-0.7671835024240015,-0.627913047940154,-0.19190619475732706,0.452774516230521,0.30682905523352844,-0.698999580260875,-0.09233005498997726,-0.6035547040967757,0.38427081491187387,-0.9516033206442402,0.36493545771197766,-0.9534045223018839,-0.838784535423934,0.3775098968326287,-0.8722057203126026
0.17779966211010922,-0.22992151265544813,0.7382717210561218,-0.9549317124383199,0.2515669134090981,-0.3414590394365702,-0.7461451712462821,0.15843282716088236,-0.8144306337115867,0.2645684680369311,-0.758771334196328,-0.6314112859517602,0.7845047195759396,0.5700208393468076,-0.16713979194237538,0.4874632643516723,0.997718770001025,-0.8484190914294287,0.2539345345523565,-0.5320896404842839,0.24457877524424343,0.8717350606602738,0.6218545181201958,0.9802781127738753,0.8464754747373755,-0.7987439712722366,0.24283615855773588,-0.33107447932132184,0.04469448928568265,-0.9123178208637759,-0.8101982723336516,-0.3070600585395371
-0.8918023664840571,-0.12790330767549407,-0.23766912529022854,-0.9293874186469724,-0.37295112985798773,-0.712784457039694,-0.22907436988154384,-0.2450354067505658,0.9608010011334578,-0.06720261361359037,-0.4518180903213258,0.16130211229100855,-0.43259544472789857,0.8048023580302441,0.13614486397384895,-0.6296679721983269,0.7625587453676566,0.3650169159026897,0.5241741590280289,-0.5449882796892449,0.21621589788804618,0.5707995617971813,-0.9372212085444014,0.32336969662877224,-0.522590275231611,-0.6801072477042354,0.7246390192804963,-0.973230071658856,-0.10244046814295937,0.8364685016389506,-0.09347691793790447,-0.2359513834975946
0.6090252468972011,-0.7216465961563032,-0.056228737639486104,-0.4586576034080052,0.1921716852304134,-0.3192210484346645,0.7902274941700229,-0.7360730159702014,0.10544168220879624,0.9839406560572936,0.23925097902749082,-0.5991682808753298,0.8974248842934021,-0.22173588242960895,-0.7427620403292468,-0.9724475188890047,0.9030959754935226,0.9478819094443645,-0.9800843500832943,0.9225373530184973,0.6334430709781487,-0.47164773782079084,0.8894813048034216,0.20299283019441572,-0.6674086442329732,0.9573035172924231,-0.474497386185019,-0.8750557185212191,-0.7718714730015954,-0.18176199518230063,0.09845921231806432,0.9705293842818332
0.0521470970000979,-0.9772016074850636,-0.12808948284938837,0.46081025148239685,0.7813891449163772,0.4209275385868567,-0.20960591711378762,0.5181641031940101,0.5588204569296094,0.769178755953327,-0.5453004501878895,-0.8915026186845532,-0.7104958639116963,0.29713646062408916,-0.7688478576118871,-0.32465186279747704,-0.6935417040846741,0.5107355238776659,-0.3721180210874546,-0.3936021114971946,0.993612436410864,-0.2063293442657761,0.7944084086597498,0.6305143755089426,0.06522302264859525,-0.323018561598724,0.4989835487247758,-0.7955629394018098,0.29599522511149967,-0.10412639918857702,-0.6345830881600003,0.21609763317586483
-0.013913786189748922,-0.6555477099208922,0.17930459617618943,0.7831740287974607,-0.9518123029505361,-0.3402778986480781,0.9646035761470808,-0.616667819108784,0.14258779223403573,-0.413987158542128,-0.8089144128514005,-0.896657158478994,0.5056693085997435,0.5841303391029262,0.00465120837681976,0.9551893349416019,0.44836475148804955,0.7669852808619475,-0.8178507846343037,-0.8186465688251356,0.3144328697199035,0.8502908825433877,-0.2737779360274666,0.4826117982233522,0.6545741564413061,0.4453789227576066,-0.2224485586943019,0.30627728286755573,0.1803027972030915,0.015750436024223102,0.040912195172372545,0.4547495694850212
0.36306351073446796,0.9356328808554755,0.47040445820760657,-0.09700138472622077,0.9117078697345287,0.5440218727998707,0.4656558700674176,-0.002094199394396812,-0.18389714636517218,0.27106614581981847,-0.5376995555354731,0.3841906525388876,-0.0976256990403841,0.7902170101022348,0.9041566499641993,-0.2074516041666694,-0.6616822073552229,-0.8890131327700224,-0.023177533174880693,0.3457143534536893,0.4887357837243431,-0.3278365553292204,0.07193484091907387,-0.6126971109849746,-0.002631442529731798,-0.9035290197542947,0.3280359171640286,0.45292350351568267,-0.9381560444283654,-0.6766120205751791,-0.039823134770812674,-0.976235292936735
-0.1460159778880743,0.037351016711612006,-0.737009921517604,0.9568139605166988,0.5700879327100727,-0.8011285759032043,0.6537843704814468,0.9752735228076679,-0.9791403970706731,0.002785962941586062,0.45875998295919507,-0.18285385589664482,0.16050694013872224,0.8807399678080037,-0.8026649002007382,-0.26789721422394974,0.7603045385520917,-0.34819570321034266,-0.6128409674365443,-0.5428652994016459,0.27906691886590695,-0.5107419402520279,0.403660454237317,0.15638951005357815,0.17653009842291456,-0.5709246345758823,-0.9237754583156963,-0.5890322339396319,0.557927229226669,0.706380290071883,-0.7932376955445852,0.5367747042511903

# 1-1F,1-1G,1-1M,2-1F,2-1G,2-2,3-1,3-2,3-3,3-4F,3-4G,4-1,4-2,4-3,4-4,4-5,5-1,5-2,5-3,5-4,5-5,6-1,6-2FF,6-2FG,6-2GG,6-3,7-1 T0,7-1 T1,7-1 T2,7-1 T3,7-1 T4,7-1 T5
